-1.2064278303766622
-2.0206688772663415
3.3721371210534814
0.39835615897961557
-4.919719979157535
1.553151630740645
2.0694728935151567
-2.205551392664238
-1.4887595119564223
0.05751831709744361
-0.3151681197618904
-0.42286248386030373
-2.634700083360622
-3.5812499242440796
0.8636552787186588
4.1149553031416275
-2.621196168803101
-0.2574394835142176
-1.1282970639800312
-1.91787665961704
-1.6688640619758384
-1.4178862962812098
3.031562628209859
0.6347183054355713
0.6892717667624281
-4.526891805666503
-3.5996745594676876
-0.8913995738962021
-0.7580014448156714
-3.507517470419833
-1.86968715819477
0.7239017425996578
1.8289566307080014
0.23628451826782623
-0.0048094346021846325
2.4651653879464326
-4.386345601952331
-1.4490933721404378
-2.1207465856362226
0.772413911504511
-5.23355036634055
4.39722653647933
3.8164048505203954
-1.9668695090795731
0.3789794051585946
-0.14021147289266478
3.3324823222948834
4.140771152640325
-5.397350836059809
-1.003513658846514
-0.023396873572931465
-1.3074883000090578
-3.6095468704304143
-3.115021084244159
-3.5767310607890828
-3.2781391541567015
1.5332759569010777
3.135413485431706
-0.06882843109642944
-1.1773843294327242
1.5758288306040658
-1.4285867169458926
-1.7840978408369417
0.8017914132044179
0.481569856836976
-2.5043954328084923
2.3307325289314322
-5.796533846070194
-0.7380039814604461
-3.129072265270516
-4.279315943434798
-2.312585212982517
-0.9536666796247459
-0.32262782384684324
0.5937678304842108
0.031708049559986046
-3.4384151896600708
-0.06595343084422306
-0.8063873552949147
3.824754228076682
-2.2377845398659497
2.2421165293588117
0.7929293588037734
-0.06485842794378399
-0.543133717976471
-4.479637200203127
-0.7848820428041472
-3.703361864598308
0.055658898897888304
2.3178959062638422
