-2.091789891338214
1.3014914989347584
-3.946687605986941
-1.3876345830645056
-0.35024659591456997
-0.9234785240718133
-1.7339363909285208
-1.1484701256622083
-0.8739993890550095
1
-4.38325041222515
3.568599712738317
21.61459005921123
0.5256844132368415
6.814062164662956
0.8131115643368902
0.8933702651237468
0.5381418656847344
0.9402879327818012
1
2.6966859319380636
-0.32338536892509007
19.628087038900482
1.823296781805599
-1.9989204232831608
1.8912037564523154
-0.6537934150258573
0.20175658563044138
-0.4590570906479589
1
0.033489507159006796
1.019384352305673
0.8978946337124049
1.8360168374283208
-0.12699659224712004
0.7024720070966424
-1.5683150756565356
-0.028077952581573695
0.7488678811321366
1
3.367357017002884
-0.40069715478178125
0.3900026829800066
1.3363192954034269
3.0566471602903547
2.278368036148798
-0.8353343384899906
-0.9900208924859171
-0.8826871867932589
1
-3.1822428628773163
-1.1965934485307557
2.114169485377219
-1.12125985395073
0.2908004174007646
4.6868412846065715
1.6048141036295902
0.8923638255970536
-2.5312443841825223
1
-0.7400930584723729
-0.3896600169958795
0.31497589561500366
0.8609822034128998
-0.353359484248515
-1.3137940813650606
2.303763864274846
1.1353369696975975
2.591481867398174
1
2.430234804632287
-0.8120659990415652
4.885286075590107
-2.2928897149714746
1.6237064354563235
1.3575105936445706
5.0475713472270956
0.7193707707751328
-0.6764760352697805
1
-1.6270038924697128
0.21613923757526543
-3.313704559736928
-0.30776234734001257
-0.2801334893806636
-1.4706475171413576
-0.2877100208836975
-1.6717622868788433
-0.13666130315060177
1
-1.8290153461396534
0.1339018185243265
5.120301789403635
3.0017979219825954
1.4859202147367503
0.5283148284945424
0.3651978532660126
-0.9468811075437119
0.9929548913347503
1
